package com.jeepark.onestep.util;

public class Model_B {

    public static double predict(double[] input) {
        double rawScore = score(input);

        return Math.max(1.0, Math.min(5.0, rawScore));
    }


    public static double score(double[] input) {
        double var0;
        if (input[0] < 90.0) {
            if (input[1] < 5.0) {
                if (input[3] < 2.93) {
                    if (input[3] < 2.71) {
                        if (input[3] < 2.61) {
                            var0 = -0.00016458909;
                        } else {
                            var0 = 0.00086940295;
                        }
                    } else {
                        if (input[2] < 4.0) {
                            var0 = -0.0016779605;
                        } else {
                            var0 = -0.00062346016;
                        }
                    }
                } else {
                    if (input[3] < 3.03) {
                        if (input[0] < 86.0) {
                            var0 = 0.0010754529;
                        } else {
                            var0 = 0.004616086;
                        }
                    } else {
                        if (input[3] < 4.66) {
                            var0 = 0.00000090174393;
                        } else {
                            var0 = 0.00053507474;
                        }
                    }
                }
            } else {
                if (input[4] < 5.0) {
                    if (input[2] < 10.0) {
                        if (input[4] < 3.0) {
                            var0 = -0.00012843525;
                        } else {
                            var0 = 0.00057212805;
                        }
                    } else {
                        if (input[4] < 3.0) {
                            var0 = -0.00042852663;
                        } else {
                            var0 = -0.0020825497;
                        }
                    }
                } else {
                    if (input[2] < 4.0) {
                        if (input[3] < 4.82) {
                            var0 = -0.00037447095;
                        } else {
                            var0 = 0.0028252793;
                        }
                    } else {
                        if (input[3] < 1.97) {
                            var0 = 0.00022026831;
                        } else {
                            var0 = 0.0019962285;
                        }
                    }
                }
            }
        } else {
            if (input[3] < 3.83) {
                if (input[3] < 3.27) {
                    if (input[4] < 6.0) {
                        if (input[3] < 2.18) {
                            var0 = -0.0009073752;
                        } else {
                            var0 = -0.00007624368;
                        }
                    } else {
                        if (input[4] < 7.0) {
                            var0 = 0.0016136082;
                        } else {
                            var0 = -0.0005487199;
                        }
                    }
                } else {
                    if (input[4] < 4.0) {
                        if (input[0] < 99.0) {
                            var0 = -0.00026351004;
                        } else {
                            var0 = 0.002339542;
                        }
                    } else {
                        if (input[1] < 2.0) {
                            var0 = -0.00047878324;
                        } else {
                            var0 = -0.003529535;
                        }
                    }
                }
            } else {
                if (input[2] < 5.0) {
                    if (input[4] < 4.0) {
                        if (input[4] < 2.0) {
                            var0 = -0.00008382678;
                        } else {
                            var0 = 0.00067356735;
                        }
                    } else {
                        if (input[0] < 93.0) {
                            var0 = 0.0000044584276;
                        } else {
                            var0 = -0.0026903644;
                        }
                    }
                } else {
                    if (input[0] < 99.0) {
                        if (input[0] < 97.0) {
                            var0 = 0.0002423913;
                        } else {
                            var0 = 0.0028223;
                        }
                    } else {
                        if (input[2] < 9.0) {
                            var0 = 0.0002971659;
                        } else {
                            var0 = -0.0017798642;
                        }
                    }
                }
            }
        }
        double var1;
        if (input[0] < 19.0) {
            if (input[1] < 3.0) {
                if (input[4] < 7.0) {
                    if (input[2] < 9.0) {
                        if (input[0] < 18.0) {
                            var1 = 0.00017400685;
                        } else {
                            var1 = 0.0015112236;
                        }
                    } else {
                        if (input[0] < 7.0) {
                            var1 = -0.00008910696;
                        } else {
                            var1 = -0.0009976866;
                        }
                    }
                } else {
                    if (input[2] < 3.0) {
                        if (input[0] < 12.0) {
                            var1 = 0.0014769359;
                        } else {
                            var1 = -0.0005813643;
                        }
                    } else {
                        if (input[3] < 3.36) {
                            var1 = -0.00079223275;
                        } else {
                            var1 = -0.003078195;
                        }
                    }
                }
            } else {
                if (input[4] < 6.0) {
                    if (input[3] < 3.97) {
                        if (input[4] < 4.0) {
                            var1 = -0.000059169695;
                        } else {
                            var1 = 0.0014542992;
                        }
                    } else {
                        if (input[4] < 4.0) {
                            var1 = -0.00018897721;
                        } else {
                            var1 = -0.0022786146;
                        }
                    }
                } else {
                    if (input[3] < 4.38) {
                        if (input[2] < 9.0) {
                            var1 = 0.00024895085;
                        } else {
                            var1 = 0.003434584;
                        }
                    } else {
                        if (input[0] < 5.0) {
                            var1 = 0.0024144202;
                        } else {
                            var1 = 0.0054451516;
                        }
                    }
                }
            }
        } else {
            if (input[3] < 4.49) {
                if (input[2] < 4.0) {
                    if (input[1] < 2.0) {
                        if (input[3] < 3.77) {
                            var1 = 0.00015684287;
                        } else {
                            var1 = 0.0013016773;
                        }
                    } else {
                        if (input[4] < 4.0) {
                            var1 = 0.000018398567;
                        } else {
                            var1 = -0.0011775832;
                        }
                    }
                } else {
                    if (input[3] < 1.26) {
                        if (input[1] < 2.0) {
                            var1 = 0.0009575069;
                        } else {
                            var1 = -0.0014154072;
                        }
                    } else {
                        if (input[1] < 2.0) {
                            var1 = -0.0006161843;
                        } else {
                            var1 = 0.0002175106;
                        }
                    }
                }
            } else {
                if (input[4] < 6.0) {
                    if (input[2] < 6.0) {
                        if (input[4] < 4.0) {
                            var1 = -0.00011315433;
                        } else {
                            var1 = 0.0015067555;
                        }
                    } else {
                        if (input[4] < 4.0) {
                            var1 = 0.00018074685;
                        } else {
                            var1 = -0.00090012525;
                        }
                    }
                } else {
                    if (input[1] < 3.0) {
                        if (input[2] < 4.0) {
                            var1 = 0.0010481045;
                        } else {
                            var1 = -0.0022307166;
                        }
                    } else {
                        if (input[2] < 4.0) {
                            var1 = -0.00078677834;
                        } else {
                            var1 = 0.0035310544;
                        }
                    }
                }
            }
        }
        double var2;
        if (input[0] < 75.0) {
            if (input[4] < 1.0) {
                if (input[3] < 1.45) {
                    if (input[1] < 4.0) {
                        if (input[3] < 1.19) {
                            var2 = -0.0006344279;
                        } else {
                            var2 = 0.0007995776;
                        }
                    } else {
                        if (input[2] < 4.0) {
                            var2 = 0.00001560698;
                        } else {
                            var2 = 0.002100678;
                        }
                    }
                } else {
                    if (input[3] < 2.22) {
                        if (input[1] < 4.0) {
                            var2 = 0.000119486605;
                        } else {
                            var2 = -0.0034958844;
                        }
                    } else {
                        if (input[1] < 2.0) {
                            var2 = 0.00036442667;
                        } else {
                            var2 = -0.00040000267;
                        }
                    }
                }
            } else {
                if (input[1] < 2.0) {
                    if (input[3] < 4.98) {
                        if (input[2] < 4.0) {
                            var2 = 0.00015523046;
                        } else {
                            var2 = -0.00060249463;
                        }
                    } else {
                        var2 = 0.0038327544;
                    }
                } else {
                    if (input[3] < 1.62) {
                        if (input[3] < 1.16) {
                            var2 = -0.001057218;
                        } else {
                            var2 = -0.00023507574;
                        }
                    } else {
                        if (input[3] < 1.94) {
                            var2 = 0.0013547329;
                        } else {
                            var2 = 0.00028506052;
                        }
                    }
                }
            }
        } else {
            if (input[3] < 4.11) {
                if (input[3] < 4.03) {
                    if (input[1] < 2.0) {
                        if (input[3] < 2.03) {
                            var2 = -0.00036419427;
                        } else {
                            var2 = 0.00062948343;
                        }
                    } else {
                        if (input[0] < 92.0) {
                            var2 = -0.00020902665;
                        } else {
                            var2 = -0.0008338491;
                        }
                    }
                } else {
                    if (input[4] < 4.0) {
                        if (input[0] < 81.0) {
                            var2 = 0.0008113682;
                        } else {
                            var2 = -0.0005189802;
                        }
                    } else {
                        if (input[1] < 4.0) {
                            var2 = -0.004591962;
                        } else {
                            var2 = -0.0002139926;
                        }
                    }
                }
            } else {
                if (input[3] < 4.14) {
                    if (input[2] < 7.0) {
                        if (input[2] < 5.0) {
                            var2 = -0.00020631553;
                        } else {
                            var2 = 0.0011971921;
                        }
                    } else {
                        var2 = 0.003990346;
                    }
                } else {
                    if (input[4] < 7.0) {
                        if (input[3] < 4.94) {
                            var2 = 0.00011007255;
                        } else {
                            var2 = 0.001972729;
                        }
                    } else {
                        if (input[1] < 4.0) {
                            var2 = -0.003795147;
                        } else {
                            var2 = 0.0025494322;
                        }
                    }
                }
            }
        }
        double var3;
        if (input[1] < 5.0) {
            if (input[2] < 9.0) {
                if (input[1] < 4.0) {
                    if (input[3] < 2.93) {
                        if (input[2] < 4.0) {
                            var3 = -0.0004696691;
                        } else {
                            var3 = -0.000013347705;
                        }
                    } else {
                        if (input[3] < 3.02) {
                            var3 = 0.0015175475;
                        } else {
                            var3 = 0.000062181665;
                        }
                    }
                } else {
                    if (input[3] < 4.65) {
                        if (input[2] < 4.0) {
                            var3 = -0.0001603118;
                        } else {
                            var3 = -0.00078470027;
                        }
                    } else {
                        if (input[4] < 7.0) {
                            var3 = -0.000027547923;
                        } else {
                            var3 = 0.0033257038;
                        }
                    }
                }
            } else {
                if (input[1] < 4.0) {
                    if (input[3] < 4.0) {
                        if (input[4] < 5.0) {
                            var3 = -0.00004281716;
                        } else {
                            var3 = -0.00078974525;
                        }
                    } else {
                        if (input[3] < 4.29) {
                            var3 = 0.0017792067;
                        } else {
                            var3 = 0.00015048223;
                        }
                    }
                } else {
                    if (input[4] < 6.0) {
                        if (input[3] < 2.74) {
                            var3 = 0.0023965097;
                        } else {
                            var3 = -0.0007640089;
                        }
                    } else {
                        if (input[0] < 25.0) {
                            var3 = 0.00614866;
                        } else {
                            var3 = 0.0038393636;
                        }
                    }
                }
            }
        } else {
            if (input[4] < 6.0) {
                if (input[3] < 3.88) {
                    if (input[3] < 3.58) {
                        if (input[2] < 10.0) {
                            var3 = 0.00015713017;
                        } else {
                            var3 = -0.0015882527;
                        }
                    } else {
                        if (input[4] < 4.0) {
                            var3 = 0.00047299304;
                        } else {
                            var3 = 0.0040966035;
                        }
                    }
                } else {
                    if (input[4] < 4.0) {
                        if (input[3] < 4.22) {
                            var3 = -0.0004149427;
                        } else {
                            var3 = 0.0002565809;
                        }
                    } else {
                        if (input[2] < 4.0) {
                            var3 = 0.00086112815;
                        } else {
                            var3 = -0.0029926712;
                        }
                    }
                }
            } else {
                if (input[3] < 4.06) {
                    if (input[0] < 43.0) {
                        if (input[2] < 4.0) {
                            var3 = -0.000058999885;
                        } else {
                            var3 = 0.0020873942;
                        }
                    } else {
                        if (input[0] < 88.0) {
                            var3 = 0.00001786479;
                        } else {
                            var3 = -0.0016398191;
                        }
                    }
                } else {
                    if (input[2] < 4.0) {
                        if (input[3] < 4.82) {
                            var3 = -0.0008936829;
                        } else {
                            var3 = 0.002159357;
                        }
                    } else {
                        if (input[3] < 4.32) {
                            var3 = 0.002824896;
                        } else {
                            var3 = 0.0054285913;
                        }
                    }
                }
            }
        }
        double var4;
        if (input[0] < 75.0) {
            if (input[4] < 1.0) {
                if (input[3] < 1.45) {
                    if (input[1] < 4.0) {
                        if (input[3] < 1.19) {
                            var4 = -0.0005948628;
                        } else {
                            var4 = 0.0007728219;
                        }
                    } else {
                        if (input[2] < 4.0) {
                            var4 = 0.000016346077;
                        } else {
                            var4 = 0.001993654;
                        }
                    }
                } else {
                    if (input[3] < 2.26) {
                        if (input[1] < 4.0) {
                            var4 = -0.00002604788;
                        } else {
                            var4 = -0.0033208728;
                        }
                    } else {
                        if (input[1] < 2.0) {
                            var4 = 0.00034399566;
                        } else {
                            var4 = -0.00035288383;
                        }
                    }
                }
            } else {
                if (input[1] < 2.0) {
                    if (input[3] < 4.94) {
                        if (input[2] < 4.0) {
                            var4 = 0.00013913117;
                        } else {
                            var4 = -0.0005900279;
                        }
                    } else {
                        if (input[4] < 4.0) {
                            var4 = -0.00067261065;
                        } else {
                            var4 = 0.0037150164;
                        }
                    }
                } else {
                    if (input[3] < 1.62) {
                        if (input[3] < 1.16) {
                            var4 = -0.0010019483;
                        } else {
                            var4 = -0.00021658854;
                        }
                    } else {
                        if (input[3] < 1.94) {
                            var4 = 0.0012951096;
                        } else {
                            var4 = 0.0002665889;
                        }
                    }
                }
            }
        } else {
            if (input[3] < 3.8) {
                if (input[3] < 3.39) {
                    if (input[1] < 2.0) {
                        if (input[3] < 2.85) {
                            var4 = -0.0000335418;
                        } else {
                            var4 = 0.0014652571;
                        }
                    } else {
                        if (input[1] < 4.0) {
                            var4 = -0.00058377575;
                        } else {
                            var4 = -0.00001703253;
                        }
                    }
                } else {
                    if (input[4] < 3.0) {
                        if (input[2] < 7.0) {
                            var4 = 0.00025654002;
                        } else {
                            var4 = -0.00035517217;
                        }
                    } else {
                        if (input[1] < 2.0) {
                            var4 = -0.0004214677;
                        } else {
                            var4 = -0.00227482;
                        }
                    }
                }
            } else {
                if (input[2] < 5.0) {
                    if (input[4] < 4.0) {
                        if (input[4] < 2.0) {
                            var4 = -0.000115192925;
                        } else {
                            var4 = 0.00067530543;
                        }
                    } else {
                        if (input[1] < 2.0) {
                            var4 = 0.0010096054;
                        } else {
                            var4 = -0.0027842736;
                        }
                    }
                } else {
                    if (input[3] < 3.83) {
                        var4 = 0.003978658;
                    } else {
                        if (input[4] < 5.0) {
                            var4 = 0.00005039763;
                        } else {
                            var4 = 0.0009244497;
                        }
                    }
                }
            }
        }
        double var5;
        if (input[0] < 25.0) {
            if (input[1] < 5.0) {
                if (input[0] < 1.0) {
                    if (input[3] < 1.77) {
                        if (input[3] < 1.67) {
                            var5 = 0.0001042525;
                        } else {
                            var5 = 0.0013718278;
                        }
                    } else {
                        if (input[2] < 1.0) {
                            var5 = 0.0015596927;
                        } else {
                            var5 = -0.0015641273;
                        }
                    }
                } else {
                    if (input[0] < 4.0) {
                        if (input[3] < 1.3) {
                            var5 = -0.0010706525;
                        } else {
                            var5 = 0.0012009776;
                        }
                    } else {
                        if (input[2] < 9.0) {
                            var5 = -0.00007351001;
                        } else {
                            var5 = 0.00052335975;
                        }
                    }
                }
            } else {
                if (input[4] < 6.0) {
                    if (input[3] < 3.8) {
                        if (input[3] < 3.48) {
                            var5 = 0.00021441118;
                        } else {
                            var5 = 0.004499247;
                        }
                    } else {
                        if (input[4] < 4.0) {
                            var5 = -0.00013210342;
                        } else {
                            var5 = -0.0020024972;
                        }
                    }
                } else {
                    if (input[3] < 4.41) {
                        if (input[2] < 4.0) {
                            var5 = 0.00010846019;
                        } else {
                            var5 = 0.0019975172;
                        }
                    } else {
                        var5 = 0.0056137484;
                    }
                }
            }
        } else {
            if (input[2] < 9.0) {
                if (input[3] < 4.86) {
                    if (input[0] < 100.0) {
                        if (input[4] < 6.0) {
                            var5 = -0.00008049839;
                        } else {
                            var5 = -0.00032587923;
                        }
                    } else {
                        if (input[3] < 1.74) {
                            var5 = 0.0003156852;
                        } else {
                            var5 = -0.0017440524;
                        }
                    }
                } else {
                    if (input[4] < 6.0) {
                        if (input[1] < 2.0) {
                            var5 = 0.0015668087;
                        } else {
                            var5 = -0.0001351954;
                        }
                    } else {
                        if (input[2] < 4.0) {
                            var5 = 0.0007597787;
                        } else {
                            var5 = 0.0037615472;
                        }
                    }
                }
            } else {
                if (input[1] < 4.0) {
                    if (input[3] < 3.38) {
                        if (input[0] < 52.0) {
                            var5 = 0.00013213113;
                        } else {
                            var5 = -0.0006733704;
                        }
                    } else {
                        if (input[1] < 2.0) {
                            var5 = -0.00052424276;
                        } else {
                            var5 = 0.0005977022;
                        }
                    }
                } else {
                    if (input[4] < 5.0) {
                        if (input[4] < 2.0) {
                            var5 = -0.001132328;
                        } else {
                            var5 = 0.00053915806;
                        }
                    } else {
                        if (input[1] < 5.0) {
                            var5 = 0.0031544957;
                        } else {
                            var5 = 0.0013990292;
                        }
                    }
                }
            }
        }
        double var6;
        if (input[0] < 90.0) {
            if (input[1] < 5.0) {
                if (input[3] < 2.93) {
                    if (input[3] < 2.71) {
                        if (input[3] < 2.61) {
                            var6 = -0.00013527737;
                        } else {
                            var6 = 0.00083609665;
                        }
                    } else {
                        if (input[2] < 4.0) {
                            var6 = -0.0015710216;
                        } else {
                            var6 = -0.0005954009;
                        }
                    }
                } else {
                    if (input[3] < 3.03) {
                        if (input[0] < 86.0) {
                            var6 = 0.0009825864;
                        } else {
                            var6 = 0.0042884112;
                        }
                    } else {
                        if (input[3] < 4.66) {
                            var6 = -0.000003121673;
                        } else {
                            var6 = 0.00045718718;
                        }
                    }
                }
            } else {
                if (input[4] < 5.0) {
                    if (input[2] < 10.0) {
                        if (input[3] < 2.9) {
                            var6 = 0.0004952597;
                        } else {
                            var6 = -0.00015698373;
                        }
                    } else {
                        if (input[4] < 3.0) {
                            var6 = -0.00034708017;
                        } else {
                            var6 = -0.0019402038;
                        }
                    }
                } else {
                    if (input[2] < 4.0) {
                        if (input[3] < 4.82) {
                            var6 = -0.00032984823;
                        } else {
                            var6 = 0.0025028896;
                        }
                    } else {
                        if (input[3] < 1.97) {
                            var6 = 0.00016891642;
                        } else {
                            var6 = 0.0017537529;
                        }
                    }
                }
            }
        } else {
            if (input[3] < 3.83) {
                if (input[3] < 3.27) {
                    if (input[4] < 6.0) {
                        if (input[3] < 2.18) {
                            var6 = -0.0007925361;
                        } else {
                            var6 = -0.00003268364;
                        }
                    } else {
                        if (input[4] < 7.0) {
                            var6 = 0.001581291;
                        } else {
                            var6 = -0.00042686448;
                        }
                    }
                } else {
                    if (input[4] < 4.0) {
                        if (input[0] < 99.0) {
                            var6 = -0.00019848408;
                        } else {
                            var6 = 0.0023115159;
                        }
                    } else {
                        if (input[1] < 2.0) {
                            var6 = -0.00043943973;
                        } else {
                            var6 = -0.0031749965;
                        }
                    }
                }
            } else {
                if (input[2] < 4.0) {
                    if (input[4] < 4.0) {
                        if (input[4] < 2.0) {
                            var6 = -0.00004919538;
                        } else {
                            var6 = 0.0005532732;
                        }
                    } else {
                        if (input[0] < 93.0) {
                            var6 = -0.000060862305;
                        } else {
                            var6 = -0.0027247276;
                        }
                    }
                } else {
                    if (input[0] < 99.0) {
                        if (input[0] < 97.0) {
                            var6 = 0.00021172415;
                        } else {
                            var6 = 0.0025125782;
                        }
                    } else {
                        if (input[2] < 9.0) {
                            var6 = 0.00016169208;
                        } else {
                            var6 = -0.0017014444;
                        }
                    }
                }
            }
        }
        double var7;
        if (input[0] < 25.0) {
            if (input[1] < 2.0) {
                if (input[3] < 4.94) {
                    if (input[4] < 4.0) {
                        if (input[3] < 2.85) {
                            var7 = -0.0005663403;
                        } else {
                            var7 = 0.00065326405;
                        }
                    } else {
                        if (input[3] < 3.02) {
                            var7 = -0.00019478123;
                        } else {
                            var7 = -0.0013648522;
                        }
                    }
                } else {
                    if (input[0] < 23.0) {
                        var7 = 0.002499661;
                    } else {
                        var7 = -0.00028540194;
                    }
                }
            } else {
                if (input[4] < 4.0) {
                    if (input[3] < 2.68) {
                        if (input[2] < 4.0) {
                            var7 = -0.0005151874;
                        } else {
                            var7 = 0.001373574;
                        }
                    } else {
                        if (input[2] < 4.0) {
                            var7 = 0.0005430823;
                        } else {
                            var7 = -0.0008108564;
                        }
                    }
                } else {
                    if (input[3] < 3.37) {
                        if (input[3] < 1.67) {
                            var7 = -0.00059036276;
                        } else {
                            var7 = 0.0003859016;
                        }
                    } else {
                        if (input[0] < 2.0) {
                            var7 = -0.0020540494;
                        } else {
                            var7 = 0.0015680911;
                        }
                    }
                }
            }
        } else {
            if (input[2] < 9.0) {
                if (input[3] < 4.65) {
                    if (input[0] < 100.0) {
                        if (input[2] < 4.0) {
                            var7 = -0.00026077518;
                        } else {
                            var7 = -0.00006209532;
                        }
                    } else {
                        if (input[3] < 3.83) {
                            var7 = -0.0016255829;
                        } else {
                            var7 = 0.0003749378;
                        }
                    }
                } else {
                    if (input[4] < 4.0) {
                        if (input[2] < 4.0) {
                            var7 = -0.0003961712;
                        } else {
                            var7 = 0.00009302976;
                        }
                    } else {
                        if (input[0] < 31.0) {
                            var7 = -0.0020657897;
                        } else {
                            var7 = 0.00086750276;
                        }
                    }
                }
            } else {
                if (input[1] < 4.0) {
                    if (input[4] < 5.0) {
                        if (input[3] < 1.7) {
                            var7 = -0.0006344509;
                        } else {
                            var7 = 0.00027699294;
                        }
                    } else {
                        if (input[3] < 4.0) {
                            var7 = -0.0008939525;
                        } else {
                            var7 = 0.0010857218;
                        }
                    }
                } else {
                    if (input[4] < 5.0) {
                        if (input[4] < 2.0) {
                            var7 = -0.001071947;
                        } else {
                            var7 = 0.0005338634;
                        }
                    } else {
                        if (input[1] < 5.0) {
                            var7 = 0.0029952326;
                        } else {
                            var7 = 0.0012690821;
                        }
                    }
                }
            }
        }
        double var8;
        if (input[0] < 19.0) {
            if (input[1] < 2.0) {
                if (input[4] < 7.0) {
                    if (input[0] < 1.0) {
                        if (input[4] < 1.0) {
                            var8 = 0.000046369434;
                        } else {
                            var8 = -0.0019376808;
                        }
                    } else {
                        if (input[0] < 2.0) {
                            var8 = 0.0015813867;
                        } else {
                            var8 = -0.00003446713;
                        }
                    }
                } else {
                    if (input[3] < 3.84) {
                        if (input[2] < 3.0) {
                            var8 = 0.00077933224;
                        } else {
                            var8 = -0.0010424237;
                        }
                    } else {
                        var8 = -0.003978574;
                    }
                }
            } else {
                if (input[4] < 4.0) {
                    if (input[3] < 2.88) {
                        if (input[4] < 1.0) {
                            var8 = -0.0011825063;
                        } else {
                            var8 = 0.0008623616;
                        }
                    } else {
                        if (input[3] < 3.08) {
                            var8 = -0.0026126963;
                        } else {
                            var8 = -0.00017495232;
                        }
                    }
                } else {
                    if (input[3] < 3.37) {
                        if (input[3] < 1.35) {
                            var8 = -0.00081122573;
                        } else {
                            var8 = 0.00044278984;
                        }
                    } else {
                        if (input[0] < 2.0) {
                            var8 = -0.001966015;
                        } else {
                            var8 = 0.0016745118;
                        }
                    }
                }
            }
        } else {
            if (input[2] < 9.0) {
                if (input[3] < 4.44) {
                    if (input[4] < 6.0) {
                        if (input[3] < 2.99) {
                            var8 = -0.00022351625;
                        } else {
                            var8 = 0.00010735572;
                        }
                    } else {
                        if (input[3] < 2.63) {
                            var8 = 0.00010773425;
                        } else {
                            var8 = -0.00077088585;
                        }
                    }
                } else {
                    if (input[4] < 2.0) {
                        if (input[3] < 4.84) {
                            var8 = -0.00022819029;
                        } else {
                            var8 = -0.00043311506;
                        }
                    } else {
                        if (input[3] < 4.86) {
                            var8 = 0.00019621656;
                        } else {
                            var8 = 0.0010238163;
                        }
                    }
                }
            } else {
                if (input[4] < 3.0) {
                    if (input[0] < 90.0) {
                        if (input[0] < 86.0) {
                            var8 = -0.00018215255;
                        } else {
                            var8 = 0.0016442154;
                        }
                    } else {
                        if (input[0] < 96.0) {
                            var8 = -0.0028790317;
                        } else {
                            var8 = -0.0004652864;
                        }
                    }
                } else {
                    if (input[1] < 4.0) {
                        if (input[3] < 4.0) {
                            var8 = -0.00036069122;
                        } else {
                            var8 = 0.0009110492;
                        }
                    } else {
                        if (input[3] < 4.02) {
                            var8 = 0.0021725118;
                        } else {
                            var8 = -0.000057369325;
                        }
                    }
                }
            }
        }
        double var9;
        if (input[0] < 75.0) {
            if (input[4] < 1.0) {
                if (input[3] < 1.43) {
                    if (input[1] < 4.0) {
                        if (input[1] < 2.0) {
                            var9 = 0.0006856386;
                        } else {
                            var9 = -0.0005924128;
                        }
                    } else {
                        if (input[2] < 6.0) {
                            var9 = 0.00029830376;
                        } else {
                            var9 = 0.0023151075;
                        }
                    }
                } else {
                    if (input[3] < 2.26) {
                        if (input[1] < 4.0) {
                            var9 = -0.0000013063784;
                        } else {
                            var9 = -0.0030212214;
                        }
                    } else {
                        if (input[0] < 53.0) {
                            var9 = -0.0003620563;
                        } else {
                            var9 = 0.0001993104;
                        }
                    }
                }
            } else {
                if (input[1] < 3.0) {
                    if (input[3] < 2.93) {
                        if (input[3] < 1.11) {
                            var9 = 0.0005217903;
                        } else {
                            var9 = -0.00039921707;
                        }
                    } else {
                        if (input[3] < 3.03) {
                            var9 = 0.0016314021;
                        } else {
                            var9 = 0.00011612663;
                        }
                    }
                } else {
                    if (input[3] < 1.16) {
                        if (input[2] < 4.0) {
                            var9 = -0.000012690402;
                        } else {
                            var9 = -0.0021663203;
                        }
                    } else {
                        if (input[3] < 2.71) {
                            var9 = 0.0006494849;
                        } else {
                            var9 = 0.000107768356;
                        }
                    }
                }
            }
        } else {
            if (input[4] < 4.0) {
                if (input[3] < 2.08) {
                    if (input[0] < 90.0) {
                        if (input[0] < 76.0) {
                            var9 = 0.002338197;
                        } else {
                            var9 = -0.000048782797;
                        }
                    } else {
                        if (input[3] < 1.16) {
                            var9 = 0.0014125347;
                        } else {
                            var9 = -0.0013876964;
                        }
                    }
                } else {
                    if (input[0] < 77.0) {
                        if (input[3] < 3.59) {
                            var9 = -0.0014399973;
                        } else {
                            var9 = 0.0003451936;
                        }
                    } else {
                        if (input[0] < 81.0) {
                            var9 = 0.0007632402;
                        } else {
                            var9 = 0.000086150096;
                        }
                    }
                }
            } else {
                if (input[2] < 4.0) {
                    if (input[1] < 2.0) {
                        if (input[0] < 86.0) {
                            var9 = 0.00062688295;
                        } else {
                            var9 = 0.0020228545;
                        }
                    } else {
                        if (input[3] < 2.69) {
                            var9 = 0.00014382011;
                        } else {
                            var9 = -0.0032374572;
                        }
                    }
                } else {
                    if (input[3] < 3.79) {
                        if (input[3] < 3.36) {
                            var9 = -0.00027544997;
                        } else {
                            var9 = -0.0016933847;
                        }
                    } else {
                        if (input[1] < 2.0) {
                            var9 = -0.00079406967;
                        } else {
                            var9 = 0.0009890718;
                        }
                    }
                }
            }
        }
        double var10;
        if (input[0] < 29.0) {
            if (input[1] < 2.0) {
                if (input[0] < 1.0) {
                    if (input[4] < 1.0) {
                        var10 = 0.00005426109;
                    } else {
                        if (input[4] < 6.0) {
                            var10 = -0.0018418849;
                        } else {
                            var10 = -0.00046173632;
                        }
                    }
                } else {
                    if (input[4] < 4.0) {
                        if (input[0] < 2.0) {
                            var10 = 0.0015023317;
                        } else {
                            var10 = 0.000087113185;
                        }
                    } else {
                        if (input[3] < 4.81) {
                            var10 = -0.0006380013;
                        } else {
                            var10 = 0.0023896396;
                        }
                    }
                }
            } else {
                if (input[4] < 2.0) {
                    if (input[3] < 1.88) {
                        if (input[3] < 1.49) {
                            var10 = 0.000043946897;
                        } else {
                            var10 = 0.0020774012;
                        }
                    } else {
                        if (input[3] < 2.08) {
                            var10 = -0.0038317037;
                        } else {
                            var10 = -0.0003625935;
                        }
                    }
                } else {
                    if (input[3] < 1.72) {
                        if (input[2] < 4.0) {
                            var10 = -0.000952372;
                        } else {
                            var10 = 0.000082005514;
                        }
                    } else {
                        if (input[3] < 1.94) {
                            var10 = 0.0023140656;
                        } else {
                            var10 = 0.00053634256;
                        }
                    }
                }
            }
        } else {
            if (input[3] < 4.86) {
                if (input[2] < 9.0) {
                    if (input[4] < 6.0) {
                        if (input[3] < 3.08) {
                            var10 = -0.00022070506;
                        } else {
                            var10 = 0.00010642193;
                        }
                    } else {
                        if (input[3] < 2.71) {
                            var10 = 0.00011478438;
                        } else {
                            var10 = -0.0006886572;
                        }
                    }
                } else {
                    if (input[0] < 31.0) {
                        if (input[3] < 4.58) {
                            var10 = -0.0024527425;
                        } else {
                            var10 = -0.0002264774;
                        }
                    } else {
                        if (input[1] < 4.0) {
                            var10 = -0.00006345069;
                        } else {
                            var10 = 0.00070267014;
                        }
                    }
                }
            } else {
                if (input[4] < 6.0) {
                    if (input[1] < 2.0) {
                        if (input[4] < 4.0) {
                            var10 = -0.00046423377;
                        } else {
                            var10 = 0.0037075311;
                        }
                    } else {
                        if (input[1] < 4.0) {
                            var10 = -0.0005922035;
                        } else {
                            var10 = 0.00037299708;
                        }
                    }
                } else {
                    if (input[2] < 4.0) {
                        if (input[1] < 3.0) {
                            var10 = 0.002430872;
                        } else {
                            var10 = -0.00052268506;
                        }
                    } else {
                        if (input[1] < 3.0) {
                            var10 = 0.00029646556;
                        } else {
                            var10 = 0.0036702752;
                        }
                    }
                }
            }
        }
        double var11;
        if (input[0] < 90.0) {
            if (input[1] < 5.0) {
                if (input[2] < 9.0) {
                    if (input[1] < 4.0) {
                        if (input[3] < 2.93) {
                            var11 = -0.00016907086;
                        } else {
                            var11 = 0.00018476219;
                        }
                    } else {
                        if (input[3] < 4.65) {
                            var11 = -0.0004383164;
                        } else {
                            var11 = 0.00077337405;
                        }
                    }
                } else {
                    if (input[1] < 4.0) {
                        if (input[4] < 5.0) {
                            var11 = 0.000082471954;
                        } else {
                            var11 = -0.00048147608;
                        }
                    } else {
                        if (input[4] < 4.0) {
                            var11 = -0.00026328166;
                        } else {
                            var11 = 0.0031569656;
                        }
                    }
                }
            } else {
                if (input[4] < 5.0) {
                    if (input[2] < 10.0) {
                        if (input[3] < 2.9) {
                            var11 = 0.00047324147;
                        } else {
                            var11 = -0.00016054785;
                        }
                    } else {
                        if (input[4] < 3.0) {
                            var11 = -0.00030120512;
                        } else {
                            var11 = -0.0019659754;
                        }
                    }
                } else {
                    if (input[2] < 4.0) {
                        if (input[3] < 4.82) {
                            var11 = -0.00033478832;
                        } else {
                            var11 = 0.002311635;
                        }
                    } else {
                        if (input[3] < 1.09) {
                            var11 = -0.0031987191;
                        } else {
                            var11 = 0.001314436;
                        }
                    }
                }
            }
        } else {
            if (input[3] < 3.83) {
                if (input[3] < 3.27) {
                    if (input[4] < 6.0) {
                        if (input[3] < 1.07) {
                            var11 = 0.0015917832;
                        } else {
                            var11 = -0.00043502598;
                        }
                    } else {
                        if (input[4] < 7.0) {
                            var11 = 0.0014808303;
                        } else {
                            var11 = -0.00032871112;
                        }
                    }
                } else {
                    if (input[4] < 4.0) {
                        if (input[0] < 99.0) {
                            var11 = -0.00019440711;
                        } else {
                            var11 = 0.0022477866;
                        }
                    } else {
                        if (input[1] < 2.0) {
                            var11 = -0.00036769957;
                        } else {
                            var11 = -0.00285123;
                        }
                    }
                }
            } else {
                if (input[4] < 7.0) {
                    if (input[1] < 4.0) {
                        if (input[2] < 6.0) {
                            var11 = -0.000028513487;
                        } else {
                            var11 = 0.0013268896;
                        }
                    } else {
                        if (input[4] < 6.0) {
                            var11 = -0.000671261;
                        } else {
                            var11 = 0.0026355663;
                        }
                    }
                } else {
                    if (input[1] < 5.0) {
                        if (input[3] < 4.14) {
                            var11 = -0.0005182823;
                        } else {
                            var11 = -0.0033680182;
                        }
                    } else {
                        if (input[0] < 96.0) {
                            var11 = 0.000842762;
                        } else {
                            var11 = 0.0030563474;
                        }
                    }
                }
            }
        }
        double var12;
        if (input[0] < 43.0) {
            if (input[1] < 2.0) {
                if (input[3] < 4.38) {
                    if (input[4] < 4.0) {
                        if (input[3] < 2.91) {
                            var12 = -0.00047018705;
                        } else {
                            var12 = 0.0008542821;
                        }
                    } else {
                        if (input[3] < 3.02) {
                            var12 = -0.00012569339;
                        } else {
                            var12 = -0.0017226421;
                        }
                    }
                } else {
                    if (input[4] < 4.0) {
                        if (input[2] < 4.0) {
                            var12 = -0.00067085965;
                        } else {
                            var12 = 0.00010943525;
                        }
                    } else {
                        if (input[0] < 39.0) {
                            var12 = 0.0010826091;
                        } else {
                            var12 = -0.0019469083;
                        }
                    }
                }
            } else {
                if (input[4] < 4.0) {
                    if (input[4] < 1.0) {
                        if (input[3] < 2.99) {
                            var12 = -0.0010794774;
                        } else {
                            var12 = 0.000047176185;
                        }
                    } else {
                        if (input[3] < 2.74) {
                            var12 = 0.00043600655;
                        } else {
                            var12 = -0.00022483482;
                        }
                    }
                } else {
                    if (input[3] < 2.49) {
                        if (input[1] < 3.0) {
                            var12 = -0.00073319074;
                        } else {
                            var12 = 0.00027766748;
                        }
                    } else {
                        if (input[3] < 2.68) {
                            var12 = 0.002091226;
                        } else {
                            var12 = 0.0006229177;
                        }
                    }
                }
            }
        } else {
            if (input[3] < 4.98) {
                if (input[2] < 9.0) {
                    if (input[4] < 6.0) {
                        if (input[3] < 2.03) {
                            var12 = -0.00034554175;
                        } else {
                            var12 = 0.000010929193;
                        }
                    } else {
                        if (input[3] < 1.94) {
                            var12 = 0.00023158306;
                        } else {
                            var12 = -0.0005438613;
                        }
                    }
                } else {
                    if (input[1] < 4.0) {
                        if (input[3] < 3.38) {
                            var12 = -0.0004612152;
                        } else {
                            var12 = 0.00034099966;
                        }
                    } else {
                        if (input[4] < 2.0) {
                            var12 = -0.001134257;
                        } else {
                            var12 = 0.0012244544;
                        }
                    }
                }
            } else {
                if (input[4] < 4.0) {
                    if (input[0] < 63.0) {
                        var12 = 0.000077813864;
                    } else {
                        var12 = -0.0005115668;
                    }
                } else {
                    var12 = 0.0032629538;
                }
            }
        }
        double var13;
        if (input[0] < 16.0) {
            if (input[1] < 5.0) {
                if (input[3] < 3.53) {
                    if (input[3] < 3.47) {
                        if (input[0] < 4.0) {
                            var13 = 0.00052828924;
                        } else {
                            var13 = -0.00020825087;
                        }
                    } else {
                        if (input[2] < 4.0) {
                            var13 = -0.00015915236;
                        } else {
                            var13 = -0.0028710922;
                        }
                    }
                } else {
                    if (input[4] < 6.0) {
                        if (input[3] < 4.16) {
                            var13 = 0.00053046836;
                        } else {
                            var13 = -0.00035856754;
                        }
                    } else {
                        if (input[1] < 3.0) {
                            var13 = -0.0002515091;
                        } else {
                            var13 = 0.0030009788;
                        }
                    }
                }
            } else {
                if (input[0] < 5.0) {
                    if (input[2] < 7.0) {
                        if (input[2] < 3.0) {
                            var13 = -0.00020137876;
                        } else {
                            var13 = -0.0021675122;
                        }
                    } else {
                        if (input[2] < 9.0) {
                            var13 = 0.0041030366;
                        } else {
                            var13 = -0.00072428584;
                        }
                    }
                } else {
                    if (input[4] < 4.0) {
                        if (input[3] < 2.84) {
                            var13 = 0.001058448;
                        } else {
                            var13 = -0.00016548947;
                        }
                    } else {
                        if (input[3] < 3.73) {
                            var13 = 0.0030196048;
                        } else {
                            var13 = 0.00060333527;
                        }
                    }
                }
            }
        } else {
            if (input[3] < 4.49) {
                if (input[2] < 4.0) {
                    if (input[1] < 2.0) {
                        if (input[3] < 3.77) {
                            var13 = 0.00020961327;
                        } else {
                            var13 = 0.0012029664;
                        }
                    } else {
                        if (input[4] < 4.0) {
                            var13 = 0.00006823407;
                        } else {
                            var13 = -0.0010086399;
                        }
                    }
                } else {
                    if (input[3] < 1.26) {
                        if (input[1] < 2.0) {
                            var13 = 0.0010113049;
                        } else {
                            var13 = -0.0012672697;
                        }
                    } else {
                        if (input[1] < 2.0) {
                            var13 = -0.0005181161;
                        } else {
                            var13 = 0.00019281363;
                        }
                    }
                }
            } else {
                if (input[4] < 6.0) {
                    if (input[2] < 6.0) {
                        if (input[4] < 4.0) {
                            var13 = -0.0001064167;
                        } else {
                            var13 = 0.0013860542;
                        }
                    } else {
                        if (input[4] < 4.0) {
                            var13 = 0.00011313671;
                        } else {
                            var13 = -0.000998381;
                        }
                    }
                } else {
                    if (input[1] < 4.0) {
                        if (input[3] < 4.86) {
                            var13 = -0.00090317865;
                        } else {
                            var13 = 0.0014829318;
                        }
                    } else {
                        if (input[2] < 4.0) {
                            var13 = -0.00006089669;
                        } else {
                            var13 = 0.0039411266;
                        }
                    }
                }
            }
        }
        double var14;
        if (input[0] < 75.0) {
            if (input[3] < 3.2) {
                if (input[2] < 4.0) {
                    if (input[3] < 1.27) {
                        if (input[1] < 5.0) {
                            var14 = 0.0005304275;
                        } else {
                            var14 = -0.0010044206;
                        }
                    } else {
                        if (input[3] < 1.85) {
                            var14 = -0.0008847133;
                        } else {
                            var14 = -0.00029259242;
                        }
                    }
                } else {
                    if (input[3] < 2.82) {
                        if (input[4] < 1.0) {
                            var14 = -0.0007325514;
                        } else {
                            var14 = 0.00040168493;
                        }
                    } else {
                        if (input[1] < 4.0) {
                            var14 = 0.00012260879;
                        } else {
                            var14 = -0.0013673155;
                        }
                    }
                }
            } else {
                if (input[4] < 2.0) {
                    if (input[2] < 10.0) {
                        if (input[3] < 4.81) {
                            var14 = -0.00013190345;
                        } else {
                            var14 = -0.00032877416;
                        }
                    } else {
                        if (input[1] < 5.0) {
                            var14 = 0.00000625036;
                        } else {
                            var14 = 0.00075547997;
                        }
                    }
                } else {
                    if (input[3] < 3.86) {
                        if (input[1] < 5.0) {
                            var14 = 0.000322552;
                        } else {
                            var14 = 0.0017502022;
                        }
                    } else {
                        if (input[4] < 6.0) {
                            var14 = -0.00015758666;
                        } else {
                            var14 = 0.0007155385;
                        }
                    }
                }
            }
        } else {
            if (input[4] < 4.0) {
                if (input[0] < 92.0) {
                    if (input[2] < 9.0) {
                        if (input[2] < 8.0) {
                            var14 = 0.00012666262;
                        } else {
                            var14 = -0.0007921508;
                        }
                    } else {
                        if (input[4] < 3.0) {
                            var14 = 0.000025222214;
                        } else {
                            var14 = 0.0016335453;
                        }
                    }
                } else {
                    if (input[3] < 3.09) {
                        if (input[0] < 97.0) {
                            var14 = -0.0013750072;
                        } else {
                            var14 = -0.000115966344;
                        }
                    } else {
                        if (input[2] < 9.0) {
                            var14 = 0.0004052169;
                        } else {
                            var14 = -0.0005864109;
                        }
                    }
                }
            } else {
                if (input[2] < 4.0) {
                    if (input[1] < 2.0) {
                        if (input[0] < 86.0) {
                            var14 = 0.00058684795;
                        } else {
                            var14 = 0.0019162095;
                        }
                    } else {
                        if (input[3] < 1.82) {
                            var14 = 0.0011352538;
                        } else {
                            var14 = -0.0024398405;
                        }
                    }
                } else {
                    if (input[3] < 3.79) {
                        if (input[3] < 3.36) {
                            var14 = -0.0002540336;
                        } else {
                            var14 = -0.0015409125;
                        }
                    } else {
                        if (input[1] < 2.0) {
                            var14 = -0.000744411;
                        } else {
                            var14 = 0.0008744565;
                        }
                    }
                }
            }
        }
        double var15;
        if (input[0] < 90.0) {
            if (input[1] < 5.0) {
                if (input[2] < 9.0) {
                    if (input[1] < 4.0) {
                        if (input[3] < 2.93) {
                            var15 = -0.00015048911;
                        } else {
                            var15 = 0.00017342271;
                        }
                    } else {
                        if (input[3] < 4.65) {
                            var15 = -0.00040932302;
                        } else {
                            var15 = 0.0007092788;
                        }
                    }
                } else {
                    if (input[1] < 4.0) {
                        if (input[4] < 5.0) {
                            var15 = 0.00007556374;
                        } else {
                            var15 = -0.0004654686;
                        }
                    } else {
                        if (input[4] < 4.0) {
                            var15 = -0.0002592795;
                        } else {
                            var15 = 0.002919222;
                        }
                    }
                }
            } else {
                if (input[4] < 5.0) {
                    if (input[2] < 10.0) {
                        if (input[3] < 2.9) {
                            var15 = 0.0004522808;
                        } else {
                            var15 = -0.00015117662;
                        }
                    } else {
                        if (input[4] < 3.0) {
                            var15 = -0.00028413965;
                        } else {
                            var15 = -0.001938361;
                        }
                    }
                } else {
                    if (input[2] < 4.0) {
                        if (input[3] < 4.82) {
                            var15 = -0.0003157966;
                        } else {
                            var15 = 0.0021565866;
                        }
                    } else {
                        if (input[2] < 5.0) {
                            var15 = 0.0029813282;
                        } else {
                            var15 = 0.0008618962;
                        }
                    }
                }
            }
        } else {
            if (input[3] < 3.83) {
                if (input[3] < 3.27) {
                    if (input[4] < 6.0) {
                        if (input[3] < 1.07) {
                            var15 = 0.001553275;
                        } else {
                            var15 = -0.00038014262;
                        }
                    } else {
                        if (input[4] < 7.0) {
                            var15 = 0.0014101809;
                        } else {
                            var15 = -0.00023221076;
                        }
                    }
                } else {
                    if (input[4] < 4.0) {
                        if (input[0] < 99.0) {
                            var15 = -0.00020484359;
                        } else {
                            var15 = 0.0021763623;
                        }
                    } else {
                        if (input[1] < 2.0) {
                            var15 = -0.00032867046;
                        } else {
                            var15 = -0.002596706;
                        }
                    }
                }
            } else {
                if (input[4] < 7.0) {
                    if (input[1] < 4.0) {
                        if (input[2] < 6.0) {
                            var15 = -0.00006118807;
                        } else {
                            var15 = 0.0012421084;
                        }
                    } else {
                        if (input[4] < 6.0) {
                            var15 = -0.00066617824;
                        } else {
                            var15 = 0.0024383308;
                        }
                    }
                } else {
                    if (input[1] < 5.0) {
                        if (input[3] < 4.14) {
                            var15 = -0.0005331954;
                        } else {
                            var15 = -0.0031553574;
                        }
                    } else {
                        var15 = 0.0025684834;
                    }
                }
            }
        }
        double var16;
        if (input[0] < 16.0) {
            if (input[1] < 4.0) {
                if (input[0] < 4.0) {
                    if (input[0] < 1.0) {
                        if (input[1] < 2.0) {
                            var16 = -0.0015081579;
                        } else {
                            var16 = 0.00048023197;
                        }
                    } else {
                        if (input[3] < 1.7) {
                            var16 = -0.0005677423;
                        } else {
                            var16 = 0.0011148257;
                        }
                    }
                } else {
                    if (input[0] < 5.0) {
                        if (input[3] < 3.2) {
                            var16 = -0.0005268596;
                        } else {
                            var16 = -0.0022913418;
                        }
                    } else {
                        if (input[3] < 3.53) {
                            var16 = -0.00024686707;
                        } else {
                            var16 = 0.00027574477;
                        }
                    }
                }
            } else {
                if (input[4] < 6.0) {
                    if (input[3] < 3.8) {
                        if (input[3] < 3.51) {
                            var16 = 0.00024320844;
                        } else {
                            var16 = 0.0035479;
                        }
                    } else {
                        if (input[4] < 3.0) {
                            var16 = -0.00009799749;
                        } else {
                            var16 = -0.0020082442;
                        }
                    }
                } else {
                    if (input[3] < 3.76) {
                        if (input[2] < 10.0) {
                            var16 = 0.00023956239;
                        } else {
                            var16 = 0.0032370777;
                        }
                    } else {
                        if (input[2] < 2.0) {
                            var16 = -0.001504761;
                        } else {
                            var16 = 0.0043267473;
                        }
                    }
                }
            }
        } else {
            if (input[3] < 4.49) {
                if (input[2] < 4.0) {
                    if (input[1] < 2.0) {
                        if (input[0] < 61.0) {
                            var16 = 0.000053821506;
                        } else {
                            var16 = 0.0008146941;
                        }
                    } else {
                        if (input[4] < 4.0) {
                            var16 = 0.00007667752;
                        } else {
                            var16 = -0.0009259125;
                        }
                    }
                } else {
                    if (input[3] < 1.43) {
                        if (input[1] < 2.0) {
                            var16 = 0.0006888895;
                        } else {
                            var16 = -0.0009037099;
                        }
                    } else {
                        if (input[1] < 2.0) {
                            var16 = -0.0005560802;
                        } else {
                            var16 = 0.00021287487;
                        }
                    }
                }
            } else {
                if (input[4] < 6.0) {
                    if (input[2] < 6.0) {
                        if (input[4] < 4.0) {
                            var16 = -0.00010175712;
                        } else {
                            var16 = 0.0013218704;
                        }
                    } else {
                        if (input[4] < 4.0) {
                            var16 = 0.00010430081;
                        } else {
                            var16 = -0.0009527008;
                        }
                    }
                } else {
                    if (input[1] < 2.0) {
                        if (input[2] < 4.0) {
                            var16 = 0.0014718552;
                        } else {
                            var16 = -0.003602034;
                        }
                    } else {
                        if (input[2] < 4.0) {
                            var16 = -0.00053377467;
                        } else {
                            var16 = 0.0026784837;
                        }
                    }
                }
            }
        }
        double var17;
        if (input[0] < 75.0) {
            if (input[4] < 1.0) {
                if (input[3] < 1.45) {
                    if (input[1] < 4.0) {
                        if (input[3] < 1.19) {
                            var17 = -0.0004282728;
                        } else {
                            var17 = 0.000818032;
                        }
                    } else {
                        if (input[2] < 4.0) {
                            var17 = 0.00006770243;
                        } else {
                            var17 = 0.0019530496;
                        }
                    }
                } else {
                    if (input[3] < 2.26) {
                        if (input[1] < 4.0) {
                            var17 = 0.00006015327;
                        } else {
                            var17 = -0.0029290551;
                        }
                    } else {
                        if (input[1] < 2.0) {
                            var17 = 0.00036400024;
                        } else {
                            var17 = -0.00028620224;
                        }
                    }
                }
            } else {
                if (input[1] < 2.0) {
                    if (input[2] < 4.0) {
                        if (input[3] < 3.82) {
                            var17 = -0.00017210885;
                        } else {
                            var17 = 0.0013101047;
                        }
                    } else {
                        if (input[4] < 4.0) {
                            var17 = 0.00018982857;
                        } else {
                            var17 = -0.000927729;
                        }
                    }
                } else {
                    if (input[3] < 1.45) {
                        if (input[2] < 5.0) {
                            var17 = -0.000080075544;
                        } else {
                            var17 = -0.00077884644;
                        }
                    } else {
                        if (input[2] < 4.0) {
                            var17 = -0.000057074743;
                        } else {
                            var17 = 0.00041810414;
                        }
                    }
                }
            }
        } else {
            if (input[4] < 4.0) {
                if (input[0] < 92.0) {
                    if (input[0] < 91.0) {
                        if (input[0] < 90.0) {
                            var17 = 0.00015524695;
                        } else {
                            var17 = -0.0010827685;
                        }
                    } else {
                        if (input[4] < 3.0) {
                            var17 = 0.00012059667;
                        } else {
                            var17 = 0.0027406595;
                        }
                    }
                } else {
                    if (input[3] < 3.07) {
                        if (input[3] < 3.0) {
                            var17 = -0.000572307;
                        } else {
                            var17 = -0.0047572614;
                        }
                    } else {
                        if (input[2] < 9.0) {
                            var17 = 0.0003624805;
                        } else {
                            var17 = -0.0005818137;
                        }
                    }
                }
            } else {
                if (input[3] < 4.92) {
                    if (input[1] < 5.0) {
                        if (input[3] < 1.79) {
                            var17 = 0.0002305754;
                        } else {
                            var17 = -0.0006808739;
                        }
                    } else {
                        if (input[0] < 86.0) {
                            var17 = 0.0010786434;
                        } else {
                            var17 = -0.00027338864;
                        }
                    }
                } else {
                    if (input[1] < 4.0) {
                        var17 = 0.0028486222;
                    } else {
                        var17 = -0.0005969644;
                    }
                }
            }
        }
        double var18;
        if (input[0] < 43.0) {
            if (input[1] < 5.0) {
                if (input[1] < 2.0) {
                    if (input[3] < 1.55) {
                        if (input[3] < 1.31) {
                            var18 = 0.0006299233;
                        } else {
                            var18 = 0.00011367397;
                        }
                    } else {
                        if (input[3] < 2.08) {
                            var18 = -0.0013245288;
                        } else {
                            var18 = -0.00018479464;
                        }
                    }
                } else {
                    if (input[4] < 1.0) {
                        if (input[3] < 2.99) {
                            var18 = -0.0011156256;
                        } else {
                            var18 = -0.000020897865;
                        }
                    } else {
                        if (input[3] < 1.62) {
                            var18 = -0.00034055588;
                        } else {
                            var18 = 0.00028758062;
                        }
                    }
                }
            } else {
                if (input[4] < 6.0) {
                    if (input[3] < 3.92) {
                        if (input[3] < 3.5) {
                            var18 = 0.00007194687;
                        } else {
                            var18 = 0.003163738;
                        }
                    } else {
                        if (input[0] < 39.0) {
                            var18 = -0.0010116644;
                        } else {
                            var18 = 0.001563201;
                        }
                    }
                } else {
                    if (input[2] < 4.0) {
                        if (input[3] < 4.78) {
                            var18 = -0.00039548706;
                        } else {
                            var18 = 0.0016622543;
                        }
                    } else {
                        if (input[3] < 4.06) {
                            var18 = 0.0014949922;
                        } else {
                            var18 = 0.0041123102;
                        }
                    }
                }
            }
        } else {
            if (input[3] < 4.98) {
                if (input[2] < 9.0) {
                    if (input[4] < 6.0) {
                        if (input[3] < 2.04) {
                            var18 = -0.00029824197;
                        } else {
                            var18 = 0.00001567661;
                        }
                    } else {
                        if (input[2] < 8.0) {
                            var18 = -0.00021337769;
                        } else {
                            var18 = -0.0011909059;
                        }
                    }
                } else {
                    if (input[1] < 4.0) {
                        if (input[3] < 3.38) {
                            var18 = -0.00041161344;
                        } else {
                            var18 = 0.0003150308;
                        }
                    } else {
                        if (input[4] < 2.0) {
                            var18 = -0.0010602439;
                        } else {
                            var18 = 0.0010922134;
                        }
                    }
                }
            } else {
                if (input[4] < 4.0) {
                    if (input[0] < 63.0) {
                        var18 = 0.0000702262;
                    } else {
                        var18 = -0.0005274335;
                    }
                } else {
                    var18 = 0.0029415633;
                }
            }
        }
        double var19;
        if (input[0] < 29.0) {
            if (input[1] < 2.0) {
                if (input[0] < 1.0) {
                    if (input[4] < 1.0) {
                        var19 = 0.00004745722;
                    } else {
                        if (input[4] < 6.0) {
                            var19 = -0.0016863808;
                        } else {
                            var19 = -0.00039680302;
                        }
                    }
                } else {
                    if (input[0] < 2.0) {
                        if (input[2] < 7.0) {
                            var19 = 0.00028320434;
                        } else {
                            var19 = 0.0022757666;
                        }
                    } else {
                        if (input[4] < 7.0) {
                            var19 = -0.00010145359;
                        } else {
                            var19 = -0.0008604149;
                        }
                    }
                }
            } else {
                if (input[4] < 2.0) {
                    if (input[3] < 1.88) {
                        if (input[3] < 1.49) {
                            var19 = 0.000103182254;
                        } else {
                            var19 = 0.0019646385;
                        }
                    } else {
                        if (input[3] < 2.08) {
                            var19 = -0.003529811;
                        } else {
                            var19 = -0.00032668255;
                        }
                    }
                } else {
                    if (input[3] < 1.7) {
                        if (input[2] < 4.0) {
                            var19 = -0.00084483356;
                        } else {
                            var19 = 0.00005689313;
                        }
                    } else {
                        if (input[3] < 1.94) {
                            var19 = 0.001940489;
                        } else {
                            var19 = 0.0004177243;
                        }
                    }
                }
            }
        } else {
            if (input[3] < 4.86) {
                if (input[2] < 9.0) {
                    if (input[4] < 6.0) {
                        if (input[3] < 2.39) {
                            var19 = -0.00021818517;
                        } else {
                            var19 = 0.000046845107;
                        }
                    } else {
                        if (input[3] < 2.71) {
                            var19 = 0.00014760105;
                        } else {
                            var19 = -0.0005991476;
                        }
                    }
                } else {
                    if (input[0] < 31.0) {
                        if (input[3] < 4.58) {
                            var19 = -0.0023104926;
                        } else {
                            var19 = -0.00028563975;
                        }
                    } else {
                        if (input[4] < 2.0) {
                            var19 = -0.00029505143;
                        } else {
                            var19 = 0.0003670491;
                        }
                    }
                }
            } else {
                if (input[4] < 6.0) {
                    if (input[1] < 2.0) {
                        if (input[4] < 4.0) {
                            var19 = -0.00047665933;
                        } else {
                            var19 = 0.0033056259;
                        }
                    } else {
                        if (input[4] < 5.0) {
                            var19 = 0.000077161494;
                        } else {
                            var19 = -0.0012170685;
                        }
                    }
                } else {
                    if (input[2] < 4.0) {
                        if (input[1] < 3.0) {
                            var19 = 0.0021095197;
                        } else {
                            var19 = -0.00049434666;
                        }
                    } else {
                        if (input[1] < 3.0) {
                            var19 = 0.0000786384;
                        } else {
                            var19 = 0.0030367703;
                        }
                    }
                }
            }
        }
        double var20;
        if (input[0] < 75.0) {
            if (input[4] < 1.0) {
                if (input[3] < 1.45) {
                    if (input[1] < 4.0) {
                        if (input[3] < 1.19) {
                            var20 = -0.00037115786;
                        } else {
                            var20 = 0.00080838456;
                        }
                    } else {
                        if (input[2] < 4.0) {
                            var20 = 0.000087447464;
                        } else {
                            var20 = 0.0018912544;
                        }
                    }
                } else {
                    if (input[3] < 2.31) {
                        if (input[1] < 4.0) {
                            var20 = -0.000066563276;
                        } else {
                            var20 = -0.0027463126;
                        }
                    } else {
                        if (input[3] < 2.39) {
                            var20 = 0.0015663079;
                        } else {
                            var20 = -0.00017101858;
                        }
                    }
                }
            } else {
                if (input[1] < 3.0) {
                    if (input[3] < 3.77) {
                        if (input[3] < 3.42) {
                            var20 = -0.00012672314;
                        } else {
                            var20 = -0.000775363;
                        }
                    } else {
                        if (input[2] < 6.0) {
                            var20 = 0.000642986;
                        } else {
                            var20 = -0.00025210934;
                        }
                    }
                } else {
                    if (input[3] < 1.16) {
                        if (input[2] < 4.0) {
                            var20 = 0.00008353385;
                        } else {
                            var20 = -0.0019487737;
                        }
                    } else {
                        if (input[3] < 2.71) {
                            var20 = 0.00058116426;
                        } else {
                            var20 = 0.000028671944;
                        }
                    }
                }
            }
        } else {
            if (input[1] < 2.0) {
                if (input[2] < 2.0) {
                    if (input[4] < 4.0) {
                        if (input[3] < 4.33) {
                            var20 = 0.0003833;
                        } else {
                            var20 = -0.00027322292;
                        }
                    } else {
                        if (input[0] < 84.0) {
                            var20 = 0.0004952452;
                        } else {
                            var20 = 0.002410563;
                        }
                    }
                } else {
                    if (input[0] < 96.0) {
                        if (input[4] < 4.0) {
                            var20 = 0.00012618347;
                        } else {
                            var20 = -0.00077433913;
                        }
                    } else {
                        if (input[3] < 3.76) {
                            var20 = 0.00041638172;
                        } else {
                            var20 = 0.0020752216;
                        }
                    }
                }
            } else {
                if (input[2] < 3.0) {
                    if (input[3] < 1.72) {
                        if (input[3] < 1.48) {
                            var20 = 0.0016744972;
                        } else {
                            var20 = 0.00029489884;
                        }
                    } else {
                        if (input[4] < 2.0) {
                            var20 = 0.00027016425;
                        } else {
                            var20 = -0.0016507294;
                        }
                    }
                } else {
                    if (input[3] < 1.43) {
                        if (input[2] < 4.0) {
                            var20 = 0.001889053;
                        } else {
                            var20 = -0.0012758787;
                        }
                    } else {
                        if (input[2] < 4.0) {
                            var20 = -0.00065987714;
                        } else {
                            var20 = 0.00010005264;
                        }
                    }
                }
            }
        }
        double var21;
        if (input[1] < 5.0) {
            if (input[2] < 9.0) {
                if (input[1] < 4.0) {
                    if (input[4] < 6.0) {
                        if (input[2] < 4.0) {
                            var21 = -0.00012696546;
                        } else {
                            var21 = 0.00022569286;
                        }
                    } else {
                        if (input[2] < 8.0) {
                            var21 = -0.0001283943;
                        } else {
                            var21 = -0.0011331424;
                        }
                    }
                } else {
                    if (input[2] < 4.0) {
                        if (input[3] < 3.65) {
                            var21 = 0.00024474759;
                        } else {
                            var21 = -0.0007639008;
                        }
                    } else {
                        if (input[3] < 1.11) {
                            var21 = -0.0043293624;
                        } else {
                            var21 = -0.00047130082;
                        }
                    }
                }
            } else {
                if (input[1] < 4.0) {
                    if (input[3] < 4.0) {
                        if (input[3] < 3.95) {
                            var21 = -0.00020833882;
                        } else {
                            var21 = -0.0026953781;
                        }
                    } else {
                        if (input[3] < 4.29) {
                            var21 = 0.0015942429;
                        } else {
                            var21 = -0.000006755317;
                        }
                    }
                } else {
                    if (input[4] < 6.0) {
                        if (input[3] < 2.74) {
                            var21 = 0.0019895972;
                        } else {
                            var21 = -0.0009402184;
                        }
                    } else {
                        if (input[0] < 25.0) {
                            var21 = 0.005047495;
                        } else {
                            var21 = 0.0027870599;
                        }
                    }
                }
            }
        } else {
            if (input[4] < 6.0) {
                if (input[3] < 3.88) {
                    if (input[3] < 3.58) {
                        if (input[2] < 10.0) {
                            var21 = 0.00011602911;
                        } else {
                            var21 = -0.0014423593;
                        }
                    } else {
                        if (input[4] < 4.0) {
                            var21 = 0.00029877425;
                        } else {
                            var21 = 0.0035447981;
                        }
                    }
                } else {
                    if (input[4] < 4.0) {
                        if (input[3] < 4.22) {
                            var21 = -0.00036684118;
                        } else {
                            var21 = 0.00028461198;
                        }
                    } else {
                        if (input[2] < 4.0) {
                            var21 = 0.0006922861;
                        } else {
                            var21 = -0.0028859985;
                        }
                    }
                }
            } else {
                if (input[3] < 4.03) {
                    if (input[0] < 43.0) {
                        if (input[2] < 4.0) {
                            var21 = -0.00007280249;
                        } else {
                            var21 = 0.001348717;
                        }
                    } else {
                        if (input[3] < 1.04) {
                            var21 = -0.0031935216;
                        } else {
                            var21 = -0.00021111929;
                        }
                    }
                } else {
                    if (input[2] < 4.0) {
                        if (input[3] < 4.4) {
                            var21 = -0.0020899614;
                        } else {
                            var21 = 0.0005462289;
                        }
                    } else {
                        if (input[3] < 4.32) {
                            var21 = 0.0020069217;
                        } else {
                            var21 = 0.0042171297;
                        }
                    }
                }
            }
        }
        double var22;
        if (input[0] < 90.0) {
            if (input[1] < 5.0) {
                if (input[2] < 9.0) {
                    if (input[1] < 4.0) {
                        if (input[3] < 2.93) {
                            var22 = -0.00012444389;
                        } else {
                            var22 = 0.00015787939;
                        }
                    } else {
                        if (input[3] < 4.65) {
                            var22 = -0.0003711881;
                        } else {
                            var22 = 0.000672787;
                        }
                    }
                } else {
                    if (input[1] < 4.0) {
                        if (input[4] < 5.0) {
                            var22 = 0.000079752295;
                        } else {
                            var22 = -0.00043186615;
                        }
                    } else {
                        if (input[4] < 6.0) {
                            var22 = 0.00039205002;
                        } else {
                            var22 = 0.0037254484;
                        }
                    }
                }
            } else {
                if (input[4] < 5.0) {
                    if (input[2] < 10.0) {
                        if (input[3] < 2.9) {
                            var22 = 0.00042940062;
                        } else {
                            var22 = -0.0001754402;
                        }
                    } else {
                        if (input[4] < 3.0) {
                            var22 = -0.0002018935;
                        } else {
                            var22 = -0.0018234635;
                        }
                    }
                } else {
                    if (input[2] < 4.0) {
                        if (input[3] < 4.82) {
                            var22 = -0.0002639667;
                        } else {
                            var22 = 0.0020183183;
                        }
                    } else {
                        if (input[2] < 5.0) {
                            var22 = 0.0026864128;
                        } else {
